{
  "type": "Perceptron",
  "args": {
    "layers": [
      {
        "type": "Dense",
        "args": {
          "shape": [
            30,
            24
          ],
          "activation": {
            "type": "ReLU"
          }
        },
        "state": {
          "weights": [
            [
              -0.13131762111307255,
              0.2923364776098252,
              -0.26049067940671367,
              -0.07503359210971083,
              -0.334951252780406,
              0.20940172861789905,
              0.42074257261652676,
              -0.1588935899902279,
              0.11717241346140295,
              -0.21115559130114445,
              0.11943174701681875,
              0.11808907785400943,
              0.3544496480447406,
              0.32722405708292457,
              -0.33711007543264065,
              0.01673215727296551,
              -0.1060669504479516,
              0.489628272626128,
              0.37662818315401136,
              0.4008123526382262,
              -0.180516474842237,
              -0.21974939788018413,
              0.06994938513424681,
              0.21342704171224952
            ],
            [
              -0.3533841025133508,
              -0.3543867072521728,
              -0.13288437025780872,
              -0.11682893426759221,
              0.04264486958909399,
              0.056376198132625926,
              -0.0570819985826199,
              0.056940122114571556,
              0.5299686086796814,
              0.4832531628185134,
              -0.09571408902636333,
              -0.3512220222651618,
              -0.04576100744292142,
              0.19235725364613832,
              -0.06559204532583535,
              -0.05449364759995459,
              -0.050779987000661185,
              -0.298003036490957,
              -0.1764541860384716,
              0.008703863684724604,
              -0.0923238236312963,
              0.22823041386602788,
              -0.19976469216716938,
              0.4023825650668168
            ],
            [
              -0.09227895991182174,
              0.0503197782414399,
              0.2964099741953349,
              0.33429420168217927,
              0.362152620807135,
              0.07186704050788732,
              -0.26059966600397616,
              0.3446456800567435,
              -0.3870551952498007,
              -0.3365104748981401,
              0.028916065560817404,
              -0.18282466981643106,
              0.11719402740766854,
              0.444112267332881,
              -0.3007234477370761,
              -0.4578517233979969,
              0.4109217122287609,
              -0.04593867613828086,
              0.32735373206383667,
              -0.20152670492651462,
              -0.23267896816949377,
              -0.30617098015354177,
              0.15268550252743845,
              0.3265743409075807
            ],
            [
              -0.15934750172918016,
              -0.02657052089509118,
              -0.40606055200398605,
              -0.464181759413921,
              -0.29889957036891945,
              -0.23107893219521444,
              -0.20356304981546797,
              0.1709094397182566,
              0.06871542862289688,
              -0.05169802744622536,
              -0.2510177398323659,
              0.15771330740918074,
              -0.11954870352744597,
              0.20848381666419927,
              0.014336894406796195,
              -0.007808649190993011,
              -0.06397061112254068,
              -0.40423934120663885,
              -0.19709218227237124,
              0.3255119103890497,
              -0.13192864895522557,
              -0.06271717757446663,
              -0.4454813213918623,
              -0.14925296000451474
            ],
            [
              -0.4035887247697815,
              0.3367137255926832,
              0.007503661018854295,
              0.2979974193526732,
              0.025867409664484513,
              0.4369298430822195,
              -0.3038950837488803,
              -0.37467862457910733,
              0.3490193760672115,
              -0.35323200990317616,
              0.005317065643269722,
              0.27627762010703516,
              -0.47765971930038514,
              0.021536815131406165,
              0.36728686033764896,
              0.19401730284476343,
              0.08176710844714576,
              0.0491527076807732,
              0.14172828909636986,
              -0.4733874403956839,
              -0.3480680672483131,
              0.1523081490615886,
              -0.30650886382305814,
              -0.18226681915854945
            ],
            [
              -0.43399339793967967,
              -0.03684970596158244,
              -0.3697405863348016,
              -0.2523283785253431,
              0.17656128907510288,
              -0.15186314649228896,
              -0.32187473077814954,
              0.0030366994777181865,
              0.0523094975870937,
              -0.2068961252825447,
              0.11455269997106769,
              -0.36591543719985936,
              0.24289702335666383,
              -0.39931467603616133,
              -0.3508397907927884,
              -0.24058876495612974,
              -0.07994679708262788,
              -0.11817372745872297,
              0.12497785243444198,
              0.3174316180284825,
              0.36968858628704193,
              0.16475947738176536,
              -0.2901446470145119,
              -0.05524160867755826
            ],
            [
              -0.5147803426739225,
              -0.3505279366520133,
              -0.5742181031796575,
              -0.6731358475251787,
              0.10920935973355583,
              0.3026222531481314,
              -0.3673327522860495,
              -0.3112294327737438,
              0.3648426933345571,
              0.4206197214655094,
              -0.2328588463431804,
              0.11756226269153024,
              0.07942625914156819,
              0.1617924602123578,
              -0.008791353363927747,
              0.6755944830251804,
              0.00903635437007455,
              -0.049575571837669884,
              -0.566715692831284,
              0.1600115034081933,
              0.23232734154607643,
              -0.01662075835061797,
              -0.24639994966985385,
              0.5412960518165257
            ],
            [
              -0.5310258260821501,
              -0.6709136332246426,
              -0.13854637714489537,
              -0.7707072910521753,
              -0.040040406931511535,
              -0.06738970133784801,
              -0.45888053603459594,
              -0.42632786314123916,
              0.4432088432026245,
              -0.1317354234753304,
              0.078141742176324,
              -0.29970775909383646,
              -0.0867758618460246,
              -0.4841560363483911,
              0.16746633095983526,
              0.11604916054259952,
              0.11014098448442239,
              -0.29252376903391575,
              -0.03430882502417526,
              -0.04292533049131657,
              0.19415585258654072,
              -0.14159968016593663,
              -0.39411200220131043,
              0.350488755754039
            ],
            [
              -0.2911314050660426,
              0.119729607121426,
              0.11604208944566682,
              -0.05630823698998949,
              0.3578812953102471,
              0.195326305012371,
              0.5295103056062496,
              -0.3157785216239975,
              0.09604692216025326,
              -0.22610988397624449,
              0.15346539440224158,
              -0.08081331913731053,
              -0.2927235393004151,
              -0.04939533286389436,
              0.47004486866636364,
              -0.10468000318873735,
              0.38403016114595767,
              0.17504174871525754,
              0.22433908689283755,
              -0.246525567626934,
              -0.2725399983734682,
              0.4518616998686618,
              0.009109123285965245,
              0.08111581897341869
            ],
            [
              -0.09888945326859393,
              -0.008204908164208083,
              -0.09955581092288514,
              0.21976617880068416,
              -0.15049599834061633,
              -0.05773008545762655,
              0.05705775892177196,
              -0.07065893406565596,
              -0.46362687589936574,
              0.12325441152884033,
              0.6204506598955838,
              0.29540759443860837,
              0.39427923552585287,
              -0.22538774349965346,
              -0.1853905902687336,
              -0.016633789182747022,
              0.5019296181013335,
              0.019240913446031575,
              0.5600319751124818,
              -0.15093722481786442,
              0.024936804053893452,
              0.32787111495161625,
              0.3961108576702636,
              0.19209016357535663
            ],
            [
              -0.5759093630662557,
              -0.5023804985396194,
              -0.6343527270341719,
              -0.7874843707539896,
              -0.46573360687083115,
              0.4388673142019261,
              -0.003955321539718418,
              -0.5016337799332147,
              0.5755186791928857,
              0.00410747424051243,
              -0.08743598755192805,
              -0.5194113090491795,
              0.08104640780569321,
              -0.7813864211510236,
              -0.45260746397755,
              0.30000434850290614,
              -0.5622583142165843,
              -0.08072708938959858,
              -0.7382681281184224,
              -0.7829396477710235,
              0.7248020607960797,
              -0.06637359658794456,
              0.003911249993277639,
              0.6035951905561342
            ],
            [
              0.5390164282805243,
              -0.3043285232594789,
              0.4870035130245934,
              0.4013043597617705,
              0.4043974182924295,
              -0.0066951304028782565,
              -0.20232502765830218,
              0.29614047576715186,
              0.1556510763493998,
              -0.3866244987294801,
              0.15172579045745843,
              0.13517350758275262,
              -0.442028905781839,
              -0.24105520596709723,
              -0.1760122542787857,
              0.046885294143943934,
              0.16713058443182982,
              0.27825972383186814,
              -0.02576080875062936,
              0.4898746932181005,
              -0.31171580457336706,
              0.31868853196324676,
              0.5798649791138035,
              -0.20310915938896842
            ],
            [
              -0.5836892034218584,
              -0.2401898098638569,
              0.11281160420442127,
              0.08227578265506418,
              -0.12096188871077732,
              0.060484847243932056,
              -0.5292036771367035,
              -0.7074663592538546,
              0.2623030336329246,
              0.6293489335098467,
              -0.5678800017851334,
              -0.3021947067590189,
              -0.3714128557781199,
              -0.12455445604349702,
              -0.6671355618965403,
              0.05835969495254379,
              -0.4170015552110701,
              0.18120007045814798,
              -0.13829547330462943,
              -0.18340738744170615,
              0.2502421264744473,
              -0.3589202892043681,
              0.008697614579310559,
              0.2437569515342062
            ],
            [
              -0.04821298041493511,
              -0.6977284720299195,
              -0.4032449106756695,
              -0.18673235709464603,
              0.073635159509709,
              0.5776517331211769,
              -0.6015505231519693,
              -0.2302565616860326,
              0.11449115060395797,
              0.6219117772776275,
              -0.9122426227161313,
              -0.5203924837652083,
              -0.4323528235344027,
              -0.5656284171651224,
              -0.6666547548551512,
              0.5265073923531594,
              -0.7666427007304966,
              -0.0806561494109152,
              -0.7226922012124994,
              -0.8364898116134507,
              0.11836472816119957,
              -0.7224633769227107,
              -0.1545543536182459,
              0.21830563324052524
            ],
            [
              -0.11352654020172934,
              -0.47608199906502374,
              0.15175254210245837,
              0.2104537497921753,
              0.3031638420041469,
              -0.1342159617624315,
              -0.44381259958535363,
              -0.27448249315707246,
              0.49776120770479004,
              0.46897636265922693,
              -0.1353474497825985,
              -0.11327752065410109,
              -0.5771237412537116,
              0.21827411776951958,
              0.14070651895771105,
              -0.11435588884287673,
              -0.07253532127877826,
              -0.4940270788118892,
              -0.21335338228553236,
              -0.1745200538715544,
              -0.19372737385947575,
              -0.05248137712044235,
              -0.1734997116851837,
              -0.09857711607016592
            ],
            [
              0.3058004581103986,
              -0.22680215802294815,
              0.4776675575054952,
              0.47348096592207245,
              -0.05052970259841391,
              -0.11781116622292263,
              -0.11242950496605501,
              0.5204540401872065,
              0.28303804806053606,
              0.22456931403046318,
              0.3474892170209604,
              0.0872479232146911,
              0.49959389664639736,
              -0.3076943008358251,
              0.2740777282677517,
              0.23314206704867046,
              0.4329858142210064,
              -0.019859312746939646,
              -0.24360452446254116,
              0.1937843486518323,
              -0.2532034131077098,
              -0.12875300191663136,
              -0.3283240370051058,
              -0.18281218878117847
            ],
            [
              0.033190272451285585,
              0.4928030451663475,
              0.345388491029134,
              0.19984838908094915,
              -0.09267634129855191,
              -0.3119909394447661,
              0.14064645716096386,
              0.14235599987163516,
              0.3144746056942937,
              -0.35414290556061523,
              0.2777961301120013,
              -0.14691687142951126,
              0.25725170663034286,
              -0.1581684619537797,
              0.29282786989190895,
              -0.23069957696370685,
              0.19196345031431092,
              -0.1547147601198898,
              0.11139080421080927,
              0.3214177753128222,
              -0.36668203377603986,
              -0.3263229737665825,
              -0.3978298225368288,
              -0.4464703622795431
            ],
            [
              0.4017856160626417,
              -0.1790641138848958,
              -0.30209210322992297,
              -0.12781263063142487,
              -0.0981012626207794,
              0.1797741174460792,
              0.39189358377826256,
              -0.18060255603209666,
              -0.3110367338262282,
              -0.16731292304288953,
              -0.32941494728970305,
              0.017143262891595318,
              0.2705131318106172,
              -0.18892655966048597,
              0.25413076560999,
              -0.05260646214971069,
              0.13233824084099463,
              0.27336989238057696,
              0.3597026930224964,
              -0.41246136286055207,
              -0.2559003479473272,
              -0.4622071794554122,
              -0.36017870094973053,
              -0.04381675940216642
            ],
            [
              0.38494919545772166,
              -0.03413110243508017,
              0.32542295630977275,
              0.41346988867826745,
              0.10182251745486703,
              0.2556156904402881,
              0.21118665473149828,
              -0.3739464070042597,
              -0.0003674114462303925,
              0.11102063080177094,
              0.20249571014927803,
              -0.03242620140645054,
              -0.06748793657581387,
              0.3254552393999373,
              -0.06942052733470395,
              -0.4538813064385963,
              0.30427085070584936,
              0.05284423613677777,
              0.06650761142337068,
              0.32349462709512194,
              0.31910704888773983,
              0.19673125010496278,
              -0.13454175857464956,
              -0.16847511138970872
            ],
            [
              0.44231785837702087,
              -0.24581959044340487,
              0.33127821451031303,
              -0.21532386289878058,
              -0.07148414851760077,
              -0.49949163148556536,
              0.31287946365420677,
              -0.23749379646019594,
              -0.13400749129917677,
              -0.296892505920199,
              0.36346755159091515,
              0.28529375533725637,
              0.32541726316579805,
              -0.07900092730386164,
              0.43435565589611197,
              -0.15706754666948944,
              0.01851092800818121,
              -0.12800611908290027,
              0.0027226768784419687,
              -0.16277487083911055,
              -0.25430039873585264,
              -0.05393909440870894,
              0.08238731430486876,
              -0.2478822377456029
            ],
            [
              0.0427428921345092,
              -0.2365444954808555,
              -0.24521906873845667,
              -0.041888719168393505,
              -0.4885714489496194,
              0.39556945463583304,
              -0.14462336083509345,
              -0.12260926333592478,
              0.21224351855429957,
              0.10835380817735878,
              -0.23615770325191973,
              -0.38932258220379234,
              0.051608288290455454,
              -0.5141988880221184,
              -0.030905936465914052,
              -0.1080133537628972,
              -0.13524975898122263,
              -0.02179646162556263,
              -0.45931760609187383,
              -0.1363070260178337,
              0.014041844147674077,
              -0.18610185649152491,
              -0.06339094266521486,
              -0.24630987999533493
            ],
            [
              -0.5412162905810545,
              -0.07254393657920888,
              -0.04232156465577841,
              -0.3446582997461775,
              -0.12616739260451088,
              0.37162475859044036,
              -0.203364571545291,
              -0.017754154843492537,
              -0.0877303231868158,
              -0.14623835688836415,
              -0.35518166095285847,
              -0.3912430149354051,
              -0.21657306970709478,
              -0.5171361749655393,
              0.14299832784993857,
              0.13988253212021184,
              -0.11225356738199178,
              -0.20073308317203836,
              -0.5717340661973332,
              -0.4106499298628223,
              0.18190559793837857,
              -0.4380237567173477,
              -0.10448648036189305,
              0.27930549365843804
            ],
            [
              -0.14587006402075475,
              0.18777273675226483,
              -0.4150963704546402,
              -0.20863565758850988,
              -0.302608951899046,
              -0.2243042116054266,
              0.127543763215963,
              0.22076162417839593,
              0.47851116090850576,
              0.05320288639675646,
              -0.34254874829056864,
              -0.07055071183636497,
              0.11535428574487155,
              -0.05569342261583875,
              -0.2785215431798449,
              -0.2737932008760317,
              -0.3603391254010314,
              -0.19483067263006207,
              -0.24970837473662133,
              0.35145796902145904,
              0.36930294342759146,
              0.00920781414215903,
              -0.5074158767972888,
              0.38973107388167144
            ],
            [
              -0.3421319944944538,
              0.23957450934713195,
              -0.2040852281691951,
              -0.021885007920109337,
              -0.1794635900449132,
              0.21580670224446474,
              -0.5951180528299492,
              -0.06038299855972784,
              0.3453226974089384,
              -0.11334827770796624,
              -0.6874985768909877,
              -0.5264863381470531,
              -0.1461918190790594,
              -0.029861780786567427,
              -0.062040305613506555,
              0.6211561461589468,
              -0.3600140250694746,
              0.00963938923575008,
              0.07533604772539575,
              -0.5405605341053342,
              0.4838100712095931,
              0.05584595850158266,
              0.10077617987771256,
              0.45181560500729845
            ],
            [
              -0.2772351937057218,
              0.14067212999784987,
              -0.19543300874107156,
              0.2006206975028259,
              0.05044214909243317,
              -0.2089482121229756,
              -0.289115974264515,
              -0.41842152761728624,
              0.04282194722468269,
              -0.2267184620713774,
              0.11980061837994976,
              -0.3071182184322969,
              0.032662662222138296,
              0.23196084479325682,
              -0.46747099595402103,
              0.19395204062540933,
              -0.2942095434681814,
              -0.5608066513923761,
              -0.0040847380827517404,
              -0.1221757128756228,
              0.4702336828522429,
              -0.19434436846303096,
              -0.15864734684860426,
              0.3583762720692073
            ],
            [
              -0.309431956946004,
              0.05494854846301918,
              0.08121089818242933,
              -0.10881440551417229,
              0.08848764776640726,
              0.3161196433843199,
              -0.10967528670410052,
              -0.2890932593912138,
              0.37520621705435175,
              0.02110548298574457,
              0.22427738030232455,
              -0.07872140801554131,
              -0.08382646858825729,
              0.1826493143069662,
              -0.36867031405883044,
              0.31587817254039513,
              -0.157195147999246,
              -0.10356845130080129,
              0.22403676884705045,
              0.26400872756523414,
              0.1846101404714154,
              -0.04312672446377014,
              -0.13848006546070518,
              0.2956286159663852
            ],
            [
              -0.1860348267670405,
              -0.3932712493767252,
              0.1663611222752461,
              0.16913415196945847,
              -0.464528273667109,
              0.22006999158478815,
              -0.37248488419876896,
              0.11498987974097781,
              0.09248520176280389,
              0.08312552365224693,
              -0.24440947581840802,
              0.07321338670305903,
              0.5601316527030152,
              -0.30078535178384386,
              -0.4113584562588181,
              0.6535387097052473,
              -0.055839391492474855,
              0.055113363214987894,
              0.21094526325744467,
              -0.5967679677566737,
              -0.16513746959513873,
              -0.20186070102238635,
              -0.47045069804803447,
              0.22737134958748742
            ],
            [
              -0.6131204274347181,
              0.06627401274260467,
              0.08746988089131091,
              -0.4945540414437421,
              -0.06448392485787598,
              0.3861201349558499,
              -0.09928042557752695,
              -0.6019790993076073,
              -0.0916583818442115,
              -0.032140635333459046,
              -0.3457775399329098,
              -0.15902889450701846,
              -0.11335642368845776,
              -0.6588194335894851,
              -0.2257270436848409,
              0.36028198839494674,
              0.05971139470695444,
              -0.21263346792201915,
              -0.5207671344385112,
              -0.12760202043729685,
              -0.15937373829234294,
              -0.043040151387807625,
              0.12770699395120202,
              -0.0640500655428785
            ],
            [
              -0.19005974764605504,
              -0.6376193092648734,
              0.15012262268524848,
              -0.49929782355505037,
              -0.22644732493762784,
              0.5020780842801216,
              -0.3675231297516694,
              -0.14106921625927932,
              0.3731155656536132,
              0.14830452036787092,
              -0.1104140166501111,
              -0.44186183855109157,
              -0.1452812166175781,
              -0.4678301675070258,
              -0.45341545755041074,
              -0.06976905126331491,
              0.18093471287101615,
              0.04633874931915994,
              -0.19425059494160327,
              0.06992047854916923,
              0.5990651981700644,
              -0.3390560320203068,
              -0.4376514850632845,
              -0.13615098426155203
            ],
            [
              0.051545770361840264,
              0.12200923879665836,
              -0.015112543105131713,
              -0.03066644518526031,
              -0.0790047982797978,
              -0.21091189588313108,
              -0.0462764289811299,
              -0.376177650743764,
              -0.21335045594797108,
              0.313551381035356,
              -0.4743276248571558,
              -0.5421275361308994,
              0.15763074257100979,
              -0.33088344483994603,
              0.21493740003641118,
              0.07260639675717807,
              -0.3607866970152777,
              -0.0030381004838946966,
              -0.11144850205168827,
              0.09084590908718318,
              0.32139059866561337,
              -0.02982492826037721,
              -0.48171860823100093,
              -0.12418828519979189
            ]
          ],
          "biases": [
            [
              0.3766924626175372,
              0.3450879394285306,
              0.3637722230855394,
              0.4111725452630255,
              0.35212567627744146,
              -0.3872527473332678,
              0.3848125649165871,
              0.4034357325364172,
              -0.41942408481564997,
              -0.428810611536178,
              0.4388404204338301,
              0.3840725066397015,
              0.017080622955836865,
              0.39997460064094825,
              0.345888124323679,
              -0.406640549252335,
              0.4097487506983836,
              0.40032463047957456,
              0.4194650334302986,
              0.4354228590012719,
              -0.385983456400248,
              0.38070618276758733,
              0.37258700424149926,
              -0.3829009897648976
            ]
          ]
        }
      },
      {
        "type": "Dense",
        "args": {
          "shape": [
            24,
            12
          ],
          "activation": {
            "type": "ReLU"
          }
        },
        "state": {
          "weights": [
            [
              -0.03282826508621692,
              -0.36446857705827906,
              0.14023125914475146,
              0.20813118332533487,
              0.40357409361509505,
              0.28725807809693343,
              0.026200222788406738,
              -0.197731247206877,
              0.2012424243971845,
              -0.4898941789069995,
              0.5770439224783577,
              -0.020571592603006936
            ],
            [
              0.05401599683746902,
              -0.2130764085621574,
              -0.06384320980894559,
              0.792830854057545,
              -0.10964159326694684,
              0.5290755425152769,
              0.1696870626048916,
              0.042291151263740515,
              -0.6482368682956767,
              -0.06194612351678606,
              0.33414336418220747,
              0.5660566894901747
            ],
            [
              0.11196914259574021,
              -0.04247011214166893,
              0.6083006429291304,
              0.4733346036375007,
              -0.24818377937655128,
              0.47233417826189744,
              -0.622595355114735,
              -0.33148873678428703,
              -0.6702774421725044,
              -0.31735856117882,
              0.09530061506746967,
              -0.10272504959467266
            ],
            [
              -0.165979470065341,
              -0.6808337017528757,
              0.19195980962992493,
              0.6282268339381283,
              -0.15171045104428563,
              0.20787646164629003,
              0.10631180278410401,
              -0.0832164742237514,
              -0.12619823611540004,
              -0.600736456019094,
              0.4857486371952841,
              0.19400115564289336
            ],
            [
              0.3109179762899596,
              -0.2470156928262295,
              0.5657719495884082,
              -0.10347927424911038,
              -0.49396725281649884,
              0.5162709540859238,
              -0.42039241348803436,
              0.5038201171112169,
              -0.5339959285740841,
              0.1555473577625097,
              -0.10806970138004643,
              0.21869114622150482
            ],
            [
              -0.4720115593852562,
              -0.5141377519311683,
              -0.5790858097363086,
              0.09849316914056248,
              0.47053110995293224,
              -0.4898687190108544,
              0.7560478206260682,
              -0.510286960377607,
              -0.05039713190673436,
              0.5354511282688766,
              -0.5807681568637971,
              -0.20201041550097715
            ],
            [
              0.8292821100616098,
              0.36061517327974235,
              0.6075938930805591,
              0.7461148835018365,
              -0.5155992263996534,
              0.4981702462369843,
              -0.05637475278460566,
              0.6776543954596985,
              -0.28519319961301826,
              -0.8529317260513163,
              0.18010122788598748,
              0.058662853397299736
            ],
            [
              0.6307973281582366,
              0.4327137486613939,
              0.14903075917633055,
              0.666297883973744,
              -0.5142034968658583,
              0.7369923296079476,
              -0.3348588200875853,
              0.003795011015898283,
              -0.44040093965797605,
              -0.7070829260419533,
              0.6880159700875529,
              0.8587699761873405
            ],
            [
              -0.22437238536012943,
              -0.08286454194603012,
              -0.40139708450774114,
              -0.42105834401630265,
              0.2732245602567781,
              -0.19552372832367318,
              0.378041617587791,
              0.03287398126617098,
              0.7898989968721776,
              0.7230917768074442,
              -0.4566775973573845,
              -0.6467100052211633
            ],
            [
              -0.5576161923414379,
              -0.4260347972494581,
              0.4239612145993772,
              -0.09051839766832086,
              -0.050808316422582614,
              -0.3840780498744567,
              -0.32346712598348076,
              -0.20397026351139624,
              0.11714983706308929,
              0.13216893037343672,
              -0.18477415637151118,
              -0.49581980118136093
            ],
            [
              0.9129504041411763,
              0.4243144983280623,
              0.006549387624241164,
              0.09781979419235112,
              -0.765889922359945,
              0.598966558226876,
              -0.047188999899723964,
              0.6540856670727458,
              -0.6364780870497674,
              0.07831231457718907,
              0.5199877210686077,
              0.2736251606807616
            ],
            [
              0.392070821679177,
              0.0031405310737903343,
              0.5271483885240166,
              -0.10939196409968144,
              -0.1273465368449156,
              0.036730291111237275,
              -0.22586721363513762,
              0.5235956211883593,
              -0.27195822588474383,
              -0.6166526121504308,
              0.1340963560369427,
              0.5146745779049923
            ],
            [
              0.1986275996590321,
              0.5731345651835764,
              -0.025231015278491906,
              -0.2737464945535386,
              -0.3897766596579641,
              0.4364005355855847,
              0.10619910320348411,
              0.31918986700704605,
              -0.026739784735583718,
              -0.4378958091186931,
              -0.1566352761758148,
              -0.1417083208999276
            ],
            [
              0.04650805992098609,
              0.24059605588346275,
              0.17058057340310698,
              0.7294856675433946,
              -0.3059194574785525,
              0.6707907144171962,
              0.0012646596780128323,
              0.6787983464549164,
              -0.8371761826342083,
              -0.7564270078665415,
              0.8215729275791487,
              0.6729216932184517
            ],
            [
              0.41200609992323733,
              -1.0337388643714451,
              0.40001081158182394,
              0.36336327511177724,
              0.188873469978439,
              0.1558760433269245,
              -0.25645037131776677,
              0.1853270278676476,
              -0.3400467878863607,
              -0.4561969842897346,
              0.27366574905784335,
              0.23189406261095802
            ],
            [
              0.0378000235638479,
              0.37940776319103514,
              -0.793174223240402,
              -0.633783505884098,
              -0.04106913738666216,
              -0.5168235214265168,
              0.8272054756806281,
              -0.758584442979304,
              -0.14905722539614097,
              0.27906758018262373,
              0.11895790913067603,
              0.0803574736882414
            ],
            [
              -0.059348217018725766,
              -0.23018173471735837,
              0.36740700608058824,
              -0.21693096117760768,
              -0.17123410058122704,
              0.5993150135389265,
              -0.5008938100233644,
              0.7046595686498511,
              0.15642266231715715,
              -0.3991176173174382,
              -0.03824980152590468,
              0.32831298259160097
            ],
            [
              0.3000601777125627,
              -0.011706351538446317,
              -0.345515966651411,
              0.27853237859164504,
              -0.09303899736939775,
              0.5200020495295552,
              0.2795826588110614,
              0.1980611537926749,
              -0.2179073000571222,
              -0.18991630662651088,
              0.40923752957874454,
              -0.04857644464111015
            ],
            [
              0.7825289338366898,
              0.5547830221746217,
              0.47343264373076516,
              1.0440826895408186,
              -0.2450091847925183,
              0.8470953523717444,
              -0.3686594740628616,
              0.41500344593460153,
              -0.6153454805130008,
              -0.33671787680432474,
              1.0676913438306488,
              0.6038762635876365
            ],
            [
              0.6888821642769442,
              0.8849321844213585,
              0.9385198104750531,
              0.6175471866819565,
              -0.12281428220745727,
              0.9538359039258011,
              -1.0071231491256336,
              0.8704586136354369,
              -0.5980513029824245,
              -0.7130468009173971,
              0.8273640522670223,
              1.2024435474337072
            ],
            [
              -0.9889441101784051,
              -0.6419675166388568,
              -1.0247024404698166,
              -1.1691143203277636,
              1.0745760631176597,
              -1.1225418254360804,
              0.8741427883081472,
              -1.2216148915329046,
              0.3502782275228714,
              0.8173084126552739,
              -1.0376805313441029,
              -0.764924719903337
            ],
            [
              0.403872534359528,
              -0.34992542988808994,
              0.1524139509505703,
              0.5271984290538723,
              -0.08082311499634103,
              0.11498386627287276,
              0.19885752877968227,
              0.5551246169697573,
              -0.38139381894802776,
              -0.40770975922530134,
              0.28095886035248757,
              -0.22929868192292951
            ],
            [
              0.2650950073568187,
              -0.49219827379533504,
              0.03446283856541605,
              0.2456641306394682,
              -0.12972903979744566,
              0.34040153271717033,
              -0.12811039235356494,
              0.36407455790579246,
              -0.10705208849524624,
              0.026092031616887796,
              0.20807369187814115,
              0.2259532241339207
            ],
            [
              -0.5276750321905358,
              -0.2998985424757391,
              -0.27141846372630446,
              -0.49034846728598913,
              0.7559710209825693,
              -0.40281334179259015,
              0.6788610678880491,
              -0.13198049914095336,
              0.5092087297931827,
              0.344399363616051,
              -0.35088256927964445,
              -0.4190478722465067
            ]
          ],
          "biases": [
            [
              0.344522624986535,
              0.003029086592425188,
              0.3128941142684887,
              0.3307334913975534,
              -0.3118472936942229,
              0.32096886061251884,
              -0.35903286501041304,
              0.337898488841259,
              -0.33426367621319336,
              -0.3241065890908539,
              0.3414296676024827,
              0.35934861288052977
            ]
          ]
        }
      },
      {
        "type": "Dense",
        "args": {
          "shape": [
            12,
            6
          ],
          "activation": {
            "type": "ReLU"
          }
        },
        "state": {
          "weights": [
            [
              -0.3023268574290852,
              0.7792725775486091,
              -0.2338011864310271,
              -0.6995680777373061,
              -0.8967535297506566,
              -1.30836201765317
            ],
            [
              -0.5465372139265449,
              0.7077500873310376,
              -0.08377240415448992,
              -0.8888346057991063,
              -0.6914992346159725,
              -0.7222366998344095
            ],
            [
              -0.4259114869697208,
              0.31544478445202834,
              -0.9659096038285432,
              -0.9435894933712694,
              -0.5780846018010302,
              -1.2541962926347134
            ],
            [
              -0.3424283753935183,
              0.9591025674373718,
              -0.9888143185827389,
              -0.217391892493665,
              -0.5213275299518911,
              -0.4835265350005763
            ],
            [
              0.822553389509467,
              -0.2715042086417061,
              0.8826256897623392,
              0.7175515621597833,
              0.7686161586229676,
              0.736040818809638
            ],
            [
              -0.8047725008672433,
              0.37991318236701577,
              -0.8926409470020732,
              -0.556317266908928,
              -1.00504464636326,
              -0.7007820820593696
            ],
            [
              0.1649753623234656,
              -0.3597303035271878,
              1.0399776440677955,
              0.7147877562099433,
              -0.003123302642522949,
              0.1548503652811719
            ],
            [
              -0.8933883057170909,
              1.0313904922256452,
              -0.81821686324806,
              -0.16910125901444834,
              -0.12622048898249524,
              -0.1691946255469357
            ],
            [
              0.6698849836223091,
              -0.6641521131033712,
              0.7227450594856102,
              0.508905631576206,
              1.0310472385093872,
              -0.2907161690086125
            ],
            [
              0.6741332452869543,
              -0.16932793624515008,
              1.0172036715127872,
              1.1730925823346023,
              0.5841484282226477,
              0.49350447938339376
            ],
            [
              -0.2756420759213589,
              1.1348409430228164,
              -0.6376550157305386,
              -0.7148301630375459,
              -0.019271216535943325,
              -0.6614331753155224
            ],
            [
              -0.19360016421880097,
              1.269483118548604,
              -0.18915706165622978,
              -1.278005837297056,
              -0.9598184061291978,
              -1.2446305247079572
            ]
          ],
          "biases": [
            [
              -0.2854498407609565,
              0.28372538536913683,
              -0.25379520820016455,
              -0.2764956277119248,
              -0.3218568705675111,
              -0.27204471418042897
            ]
          ]
        }
      },
      {
        "type": "Dense",
        "args": {
          "shape": [
            6,
            2
          ],
          "activation": {
            "type": "SoftMax"
          }
        },
        "state": {
          "weights": [
            [
              -1.0717721654867598,
              0.2972003470370631
            ],
            [
              0.4954861245319757,
              -0.7940804527489499
            ],
            [
              -0.952127879462574,
              0.40231800500937615
            ],
            [
              -0.9048516964905081,
              0.09568528051198565
            ],
            [
              -1.3058650875451967,
              -0.5454863666002951
            ],
            [
              -1.196854402812755,
              2.4876211328545175
            ]
          ],
          "biases": [
            [
              0.21710747763173338,
              -0.2171074776317333
            ]
          ]
        }
      }
    ],
    "optimizer": {
      "type": "AdaptiveGradient",
      "args": {
        "learning_rate": 0.01,
        "epsilon": 1e-15
      }
    },
    "loss": {
      "type": "BinaryCrossEntropy",
      "args": {
        "epsilon": 1e-15
      }
    }
  }
}